digraph Tree {
node [shape=box] ;
0 [label="X[0] <= -0.546\nentropy = 1.585\nsamples = 700\nvalue = [237, 231, 232]"] ;
1 [label="X[1] <= 0.263\nentropy = 0.39\nsamples = 248\nvalue = [0, 229, 19]"] ;
0 -> 1 [labeldistance=2.5, labelangle=45, headlabel="True"] ;
7 [label="entropy = 0.043\nsamples = 212\nvalue = [0, 211, 1]"] ;
1 -> 7 ;
8 [label="X[0] <= -0.866\nentropy = 1.0\nsamples = 36\nvalue = [0, 18, 18]"] ;
1 -> 8 ;
9 [label="entropy = 0.684\nsamples = 22\nvalue = [0, 18, 4]"] ;
8 -> 9 ;
10 [label="entropy = 0.0\nsamples = 14\nvalue = [0, 0, 14]"] ;
8 -> 10 ;
2 [label="X[0] <= 1.051\nentropy = 1.035\nsamples = 452\nvalue = [237, 2, 213]"] ;
0 -> 2 [labeldistance=2.5, labelangle=-45, headlabel="False"] ;
3 [label="X[1] <= -0.056\nentropy = 0.956\nsamples = 316\nvalue = [101, 2, 213]"] ;
2 -> 3 ;
5 [label="entropy = 0.441\nsamples = 108\nvalue = [100, 2, 6]"] ;
3 -> 5 ;
6 [label="entropy = 0.044\nsamples = 208\nvalue = [1, 0, 207]"] ;
3 -> 6 ;
4 [label="entropy = 0.0\nsamples = 136\nvalue = [136, 0, 0]"] ;
2 -> 4 ;
}